<?xml version="1.0"?>
<opencv_storage>
<cascade>
  <stageType>BOOST</stageType>
  <featureType>HAAR</featureType>
  <height>24</height>
  <width>24</width>
  <stageParams>
    <boostType>GAB</boostType>
    <minHitRate>9.9500000476837158e-01</minHitRate>
    <maxFalseAlarm>5.0000000000000000e-01</maxFalseAlarm>
    <weightTrimRate>9.4999998807907104e-01</weightTrimRate>
    <maxDepth>1</maxDepth>
    <maxWeakCount>100</maxWeakCount></stageParams>
  <featureParams>
    <maxCatCount>0</maxCatCount>
    <featSize>1</featSize>
    <mode>BASIC</mode></featureParams>
  <stageNum>20</stageNum>
  <stages>
    <!-- stage 0 -->
    <_>
      <maxWeakCount>3</maxWeakCount>
      <stageThreshold>-8.2453763484954834e-01</stageThreshold>
      <weakClassifiers>
        <_>
          <internalNodes>
            0 -1 10 -2.8927668463438749e-03</internalNodes>
          <leafValues>
            7.7491962909698486e-01 -7.7966099977493286e-01</leafValues></_>
        <_>
          <internalNodes>
            0 -1 69 -9.5806429162621498e-03</internalNodes>
          <leafValues>
            8.2985824346542358e-01 -7.3528903722763062e-01</leafValues></_>
        <_>
          <internalNodes>
            0 -1 37 -5.1005575805902481e-03</internalNodes>
          <leafValues>
            6.9041240215301514e-01 -7.8657633066177368e-01</leafValues></_></weakClassifiers></_>
    <!-- stage 1 -->
    <_>
      <maxWeakCount>4</maxWeakCount>
      <stageThreshold>-5.5644321441650391e-01</stageThreshold>
      <weakClassifiers>
        <_>
          <internalNodes>
            0 -1 60 -3.6886124871671200e-03</internalNodes>
          <leafValues>
            5.7260274887084961e-01 -8.1333333253860474e-01</leafValues></_>
        <_>
          <internalNodes>
            0 -1 2 -1.3674335554242134e-02</internalNodes>
          <leafValues>
            4.9537029862403870e-01 -8.6534690856933594e-01</leafValues></_>
        <_>
          <internalNodes>
            0 -1 7 3.2652697991579771e-03</internalNodes>
          <leafValues>
            -7.7437800168991089e-01 5.5756741762161255e-01</leafValues></_>
        <_>
          <internalNodes>
            0 -1 74 -4.8936540260910988e-03</internalNodes>
          <leafValues>
            5.6466960906982422e-01 -7.5427967309951782e-01</leafValues></_></weakClassifiers></_>
    <!-- stage 2 -->
    <_>
      <maxWeakCount>2</maxWeakCount>
      <stageThreshold>-3.7501904368400574e-01</stageThreshold>
      <weakClassifiers>
        <_>
          <internalNodes>
            0 -1 25 -7.5971325859427452e-03</internalNodes>
          <leafValues>
            5.1958227157592773e-01 -8.2978725433349609e-01</leafValues></_>
        <_>
          <internalNodes>
            0 -1 63 -1.1286044493317604e-02</internalNodes>
          <leafValues>
            4.5476818084716797e-01 -7.8281372785568237e-01</leafValues></_></weakClassifiers></_>
    <!-- stage 3 -->
    <_>
      <maxWeakCount>2</maxWeakCount>
      <stageThreshold>-1.3203516602516174e-01</stageThreshold>
      <weakClassifiers>
        <_>
          <internalNodes>
            0 -1 0 -7.4258998036384583e-02</internalNodes>
          <leafValues>
            8.0487805604934692e-01 -5.5608594417572021e-01</leafValues></_>
        <_>
          <internalNodes>
            0 -1 56 2.0487499423325062e-03</internalNodes>
          <leafValues>
            -9.3691319227218628e-01 4.2640250921249390e-01</leafValues></_></weakClassifiers></_>
    <!-- stage 4 -->
    <_>
      <maxWeakCount>4</maxWeakCount>
      <stageThreshold>-1.4064451456069946e+00</stageThreshold>
      <weakClassifiers>
        <_>
          <internalNodes>
            0 -1 15 -1.9260826229583472e-04</internalNodes>
          <leafValues>
            3.9860141277313232e-01 -8.7288135290145874e-01</leafValues></_>
        <_>
          <internalNodes>
            0 -1 12 -1.2381792068481445e-02</internalNodes>
          <leafValues>
            5.9323245286941528e-01 -6.3240838050842285e-01</leafValues></_>
        <_>
          <internalNodes>
            0 -1 79 8.7420353665947914e-03</internalNodes>
          <leafValues>
            -4.3534666299819946e-01 7.9589396715164185e-01</leafValues></_>
        <_>
          <internalNodes>
            0 -1 85 1.4415877558349166e-05</internalNodes>
          <leafValues>
            -7.3729157447814941e-01 4.5004796981811523e-01</leafValues></_></weakClassifiers></_>
    <!-- stage 5 -->
    <_>
      <maxWeakCount>5</maxWeakCount>
      <stageThreshold>-6.9055551290512085e-01</stageThreshold>
      <weakClassifiers>
        <_>
          <internalNodes>
            0 -1 4 2.5053620338439941e-02</internalNodes>
          <leafValues>
            -5.2999997138977051e-01 6.6792452335357666e-01</leafValues></_>
        <_>
          <internalNodes>
            0 -1 5 -7.5670361518859863e-02</internalNodes>
          <leafValues>
            9.2158865928649902e-01 -3.5300850868225098e-01</leafValues></_>
        <_>
          <internalNodes>
            0 -1 47 -8.4280036389827728e-03</internalNodes>
          <leafValues>
            6.3610690832138062e-01 -5.4527854919433594e-01</leafValues></_>
        <_>
          <internalNodes>
            0 -1 54 -7.1253348141908646e-04</internalNodes>
          <leafValues>
            -9.8271262645721436e-01 3.5444763302803040e-01</leafValues></_>
        <_>
          <internalNodes>
            0 -1 62 5.6866439990699291e-04</internalNodes>
          <leafValues>
            3.8328388333320618e-01 -7.6043057441711426e-01</leafValues></_></weakClassifiers></_>
    <!-- stage 6 -->
    <_>
      <maxWeakCount>4</maxWeakCount>
      <stageThreshold>-6.4927744865417480e-01</stageThreshold>
      <weakClassifiers>
        <_>
          <internalNodes>
            0 -1 81 1.1384558092686348e-05</internalNodes>
          <leafValues>
            -6.7682927846908569e-01 5.5489611625671387e-01</leafValues></_>
        <_>
          <internalNodes>
            0 -1 76 1.4298116184363607e-05</internalNodes>
          <leafValues>
            -7.5458419322967529e-01 4.2009398341178894e-01</leafValues></_>
        <_>
          <internalNodes>
            0 -1 26 -1.2789605534635484e-05</internalNodes>
          <leafValues>
            3.5592880845069885e-01 -7.9801690578460693e-01</leafValues></_>
        <_>
          <internalNodes>
            0 -1 44 -1.3010917427891400e-05</internalNodes>
          <leafValues>
            4.2620718479156494e-01 -6.9061595201492310e-01</leafValues></_></weakClassifiers></_>
    <!-- stage 7 -->
    <_>
      <maxWeakCount>4</maxWeakCount>
      <stageThreshold>-8.6153805255889893e-01</stageThreshold>
      <weakClassifiers>
        <_>
          <internalNodes>
            0 -1 75 1.3763768038188573e-05</internalNodes>
          <leafValues>
            -7.3801916837692261e-01 5.5681818723678589e-01</leafValues></_>
        <_>
          <internalNodes>
            0 -1 83 1.0575301530479919e-05</internalNodes>
          <leafValues>
            -7.7829653024673462e-01 3.5629701614379883e-01</leafValues></_>
        <_>
          <internalNodes>
            0 -1 50 4.0118914330378175e-04</internalNodes>
          <leafValues>
            3.0565860867500305e-01 -7.9094672203063965e-01</leafValues></_>
        <_>
          <internalNodes>
            0 -1 30 -1.2677271115535405e-05</internalNodes>
          <leafValues>
            3.5766565799713135e-01 -7.8547447919845581e-01</leafValues></_></weakClassifiers></_>
    <!-- stage 8 -->
    <_>
      <maxWeakCount>4</maxWeakCount>
      <stageThreshold>-7.6979720592498779e-01</stageThreshold>
      <weakClassifiers>
        <_>
          <internalNodes>
            0 -1 58 6.4464716706424952e-04</internalNodes>
          <leafValues>
            3.2334047555923462e-01 -9.3939393758773804e-01</leafValues></_>
        <_>
          <internalNodes>
            0 -1 8 1.6879637769307010e-05</internalNodes>
          <leafValues>
            -6.9198197126388550e-01 4.1643080115318298e-01</leafValues></_>
        <_>
          <internalNodes>
            0 -1 19 7.3284434620290995e-04</internalNodes>
          <leafValues>
            3.4745308756828308e-01 -9.0068435668945313e-01</leafValues></_>
        <_>
          <internalNodes>
            0 -1 16 -1.3644494174513966e-05</internalNodes>
          <leafValues>
            4.9952864646911621e-01 -5.3720778226852417e-01</leafValues></_></weakClassifiers></_>
    <!-- stage 9 -->
    <_>
      <maxWeakCount>4</maxWeakCount>
      <stageThreshold>-6.8002325296401978e-01</stageThreshold>
      <weakClassifiers>
        <_>
          <internalNodes>
            0 -1 67 1.4064728929952253e-05</internalNodes>
          <leafValues>
            -8.0701756477355957e-01 3.4096109867095947e-01</leafValues></_>
        <_>
          <internalNodes>
            0 -1 59 -1.1384558092686348e-05</internalNodes>
          <leafValues>
            4.5905014872550964e-01 -6.0231947898864746e-01</leafValues></_>
        <_>
          <internalNodes>
            0 -1 40 1.2406902387738228e-03</internalNodes>
          <leafValues>
            3.4075996279716492e-01 -8.8298624753952026e-01</leafValues></_>
        <_>
          <internalNodes>
            0 -1 14 1.0032411410065833e-05</internalNodes>
          <leafValues>
            -5.6459760665893555e-01 5.5093038082122803e-01</leafValues></_></weakClassifiers></_>
    <!-- stage 10 -->
    <_>
      <maxWeakCount>4</maxWeakCount>
      <stageThreshold>-6.3514149188995361e-01</stageThreshold>
      <weakClassifiers>
        <_>
          <internalNodes>
            0 -1 1 -4.1211947798728943e-02</internalNodes>
          <leafValues>
            6.4874553680419922e-01 -5.5958551168441772e-01</leafValues></_>
        <_>
          <internalNodes>
            0 -1 84 -3.7674978375434875e-04</internalNodes>
          <leafValues>
            4.1676273941993713e-01 -8.2974457740783691e-01</leafValues></_>
        <_>
          <internalNodes>
            0 -1 38 -1.0257307440042496e-03</internalNodes>
          <leafValues>
            -7.9759579896926880e-01 3.2114502787590027e-01</leafValues></_>
        <_>
          <internalNodes>
            0 -1 48 -9.1342534869909286e-03</internalNodes>
          <leafValues>
            4.3304356932640076e-01 -7.2155272960662842e-01</leafValues></_></weakClassifiers></_>
    <!-- stage 11 -->
    <_>
      <maxWeakCount>5</maxWeakCount>
      <stageThreshold>-9.5588088035583496e-01</stageThreshold>
      <weakClassifiers>
        <_>
          <internalNodes>
            0 -1 72 -1.7280009342357516e-04</internalNodes>
          <leafValues>
            -9.1709846258163452e-01 3.0084747076034546e-01</leafValues></_>
        <_>
          <internalNodes>
            0 -1 73 1.4677262515760958e-04</internalNodes>
          <leafValues>
            2.7401793003082275e-01 -9.0349692106246948e-01</leafValues></_>
        <_>
          <internalNodes>
            0 -1 73 -2.3859925568103790e-04</internalNodes>
          <leafValues>
            -8.5070395469665527e-01 2.9808279871940613e-01</leafValues></_>
        <_>
          <internalNodes>
            0 -1 65 2.6874049217440188e-04</internalNodes>
          <leafValues>
            2.1774488687515259e-01 -9.5302224159240723e-01</leafValues></_>
        <_>
          <internalNodes>
            0 -1 20 2.1733502217102796e-04</internalNodes>
          <leafValues>
            3.2015874981880188e-01 -8.1434798240661621e-01</leafValues></_></weakClassifiers></_>
    <!-- stage 12 -->
    <_>
      <maxWeakCount>7</maxWeakCount>
      <stageThreshold>-1.4250574111938477e+00</stageThreshold>
      <weakClassifiers>
        <_>
          <internalNodes>
            0 -1 23 -2.1741809323430061e-03</internalNodes>
          <leafValues>
            4.2553192377090454e-01 -6.7474049329757690e-01</leafValues></_>
        <_>
          <internalNodes>
            0 -1 9 -6.0122623108327389e-03</internalNodes>
          <leafValues>
            2.7572795748710632e-01 -9.2777037620544434e-01</leafValues></_>
        <_>
          <internalNodes>
            0 -1 24 -7.2496462962590158e-05</internalNodes>
          <leafValues>
            3.4052729606628418e-01 -8.0499917268753052e-01</leafValues></_>
        <_>
          <internalNodes>
            0 -1 41 1.4094167854636908e-03</internalNodes>
          <leafValues>
            2.2358515858650208e-01 -9.1660791635513306e-01</leafValues></_>
        <_>
          <internalNodes>
            0 -1 43 -1.3287484180182219e-03</internalNodes>
          <leafValues>
            -8.9539742469787598e-01 2.0085313916206360e-01</leafValues></_>
        <_>
          <internalNodes>
            0 -1 51 2.9355073347687721e-03</internalNodes>
          <leafValues>
            -3.1791093945503235e-01 9.0647512674331665e-01</leafValues></_>
        <_>
          <internalNodes>
            0 -1 45 1.6395147889852524e-02</internalNodes>
          <leafValues>
            -3.2757309079170227e-01 7.7660477161407471e-01</leafValues></_></weakClassifiers></_>
    <!-- stage 13 -->
    <_>
      <maxWeakCount>4</maxWeakCount>
      <stageThreshold>-4.7833487391471863e-01</stageThreshold>
      <weakClassifiers>
        <_>
          <internalNodes>
            0 -1 57 -7.6700702309608459e-02</internalNodes>
          <leafValues>
            7.3394495248794556e-01 -4.3624159693717957e-01</leafValues></_>
        <_>
          <internalNodes>
            0 -1 31 1.4544436708092690e-03</internalNodes>
          <leafValues>
            2.7809453010559082e-01 -1.</leafValues></_>
        <_>
          <internalNodes>
            0 -1 42 -3.6458350950852036e-04</internalNodes>
          <leafValues>
            3.5209292173385620e-01 -7.1888685226440430e-01</leafValues></_>
        <_>
          <internalNodes>
            0 -1 6 6.6559398546814919e-03</internalNodes>
          <leafValues>
            -6.4284771680831909e-01 3.9869910478591919e-01</leafValues></_></weakClassifiers></_>
    <!-- stage 14 -->
    <_>
      <maxWeakCount>4</maxWeakCount>
      <stageThreshold>-6.5493977069854736e-01</stageThreshold>
      <weakClassifiers>
        <_>
          <internalNodes>
            0 -1 61 -4.7840515617281199e-04</internalNodes>
          <leafValues>
            -7.7075099945068359e-01 3.8834950327873230e-01</leafValues></_>
        <_>
          <internalNodes>
            0 -1 32 -7.0232540369033813e-02</internalNodes>
          <leafValues>
            6.3370037078857422e-01 -4.5017808675765991e-01</leafValues></_>
        <_>
          <internalNodes>
            0 -1 35 2.0286530256271362e-02</internalNodes>
          <leafValues>
            3.1473702192306519e-01 -9.1839337348937988e-01</leafValues></_>
        <_>
          <internalNodes>
            0 -1 11 -1.3010917427891400e-05</internalNodes>
          <leafValues>
            3.2528218626976013e-01 -7.8227955102920532e-01</leafValues></_></weakClassifiers></_>
    <!-- stage 15 -->
    <_>
      <maxWeakCount>4</maxWeakCount>
      <stageThreshold>-8.0875813961029053e-01</stageThreshold>
      <weakClassifiers>
        <_>
          <internalNodes>
            0 -1 21 -1.6756197437644005e-03</internalNodes>
          <leafValues>
            5.0980395078659058e-01 -5.3203344345092773e-01</leafValues></_>
        <_>
          <internalNodes>
            0 -1 78 -4.7411402920261025e-04</internalNodes>
          <leafValues>
            2.5607970356941223e-01 -9.5169121026992798e-01</leafValues></_>
        <_>
          <internalNodes>
            0 -1 68 -2.7709791902452707e-03</internalNodes>
          <leafValues>
            3.2317611575126648e-01 -7.3985147476196289e-01</leafValues></_>
        <_>
          <internalNodes>
            0 -1 49 -1.2392080388963223e-03</internalNodes>
          <leafValues>
            -9.3382179737091064e-01 2.0704706013202667e-01</leafValues></_></weakClassifiers></_>
    <!-- stage 16 -->
    <_>
      <maxWeakCount>6</maxWeakCount>
      <stageThreshold>-1.3301329612731934e+00</stageThreshold>
      <weakClassifiers>
        <_>
          <internalNodes>
            0 -1 13 -5.7450006715953350e-04</internalNodes>
          <leafValues>
            2.8205129504203796e-01 -8.4771573543548584e-01</leafValues></_>
        <_>
          <internalNodes>
            0 -1 22 -3.2517858780920506e-03</internalNodes>
          <leafValues>
            5.2089905738830566e-01 -4.9525150656700134e-01</leafValues></_>
        <_>
          <internalNodes>
            0 -1 36 -5.6164776906371117e-03</internalNodes>
          <leafValues>
            -8.5880398750305176e-01 2.8361597657203674e-01</leafValues></_>
        <_>
          <internalNodes>
            0 -1 77 -1.4697480946779251e-03</internalNodes>
          <leafValues>
            2.7631345391273499e-01 -7.7894914150238037e-01</leafValues></_>
        <_>
          <internalNodes>
            0 -1 66 -1.3301496801432222e-04</internalNodes>
          <leafValues>
            3.0356687307357788e-01 -7.3852074146270752e-01</leafValues></_>
        <_>
          <internalNodes>
            0 -1 53 3.5468707210384309e-04</internalNodes>
          <leafValues>
            1.9142563641071320e-01 -8.9852261543273926e-01</leafValues></_></weakClassifiers></_>
    <!-- stage 17 -->
    <_>
      <maxWeakCount>5</maxWeakCount>
      <stageThreshold>-5.6931406259536743e-01</stageThreshold>
      <weakClassifiers>
        <_>
          <internalNodes>
            0 -1 55 1.4843621756881475e-03</internalNodes>
          <leafValues>
            -5.2601158618927002e-01 4.6081504225730896e-01</leafValues></_>
        <_>
          <internalNodes>
            0 -1 64 -4.0339975384995341e-04</internalNodes>
          <leafValues>
            -7.5277698040008545e-01 2.7296876907348633e-01</leafValues></_>
        <_>
          <internalNodes>
            0 -1 52 5.8309000451117754e-04</internalNodes>
          <leafValues>
            1.9719052314758301e-01 -8.9908373355865479e-01</leafValues></_>
        <_>
          <internalNodes>
            0 -1 18 2.4886804167181253e-03</internalNodes>
          <leafValues>
            -6.2361937761306763e-01 3.6028292775154114e-01</leafValues></_>
        <_>
          <internalNodes>
            0 -1 29 -7.9959887079894543e-04</internalNodes>
          <leafValues>
            -7.6429712772369385e-01 3.0228093266487122e-01</leafValues></_></weakClassifiers></_>
    <!-- stage 18 -->
    <_>
      <maxWeakCount>6</maxWeakCount>
      <stageThreshold>-8.5786956548690796e-01</stageThreshold>
      <weakClassifiers>
        <_>
          <internalNodes>
            0 -1 34 -1.2704306282103062e-02</internalNodes>
          <leafValues>
            4.8275861144065857e-01 -4.6666666865348816e-01</leafValues></_>
        <_>
          <internalNodes>
            0 -1 46 -1.1092639761045575e-03</internalNodes>
          <leafValues>
            -9.3913984298706055e-01 2.4203635752201080e-01</leafValues></_>
        <_>
          <internalNodes>
            0 -1 39 1.3896152377128601e-03</internalNodes>
          <leafValues>
            -6.2255853414535522e-01 3.7118211388587952e-01</leafValues></_>
        <_>
          <internalNodes>
            0 -1 27 -1.9426315557211637e-03</internalNodes>
          <leafValues>
            -8.4940302371978760e-01 2.0105217397212982e-01</leafValues></_>
        <_>
          <internalNodes>
            0 -1 71 -2.4164468050003052e-04</internalNodes>
          <leafValues>
            -7.9553067684173584e-01 2.5884729623794556e-01</leafValues></_>
        <_>
          <internalNodes>
            0 -1 3 -4.7358069568872452e-03</internalNodes>
          <leafValues>
            6.8482768535614014e-01 -3.5652351379394531e-01</leafValues></_></weakClassifiers></_>
    <!-- stage 19 -->
    <_>
      <maxWeakCount>6</maxWeakCount>
      <stageThreshold>-9.1612416505813599e-01</stageThreshold>
      <weakClassifiers>
        <_>
          <internalNodes>
            0 -1 17 -1.0336250998079777e-03</internalNodes>
          <leafValues>
            6.0330575704574585e-01 -4.2789599299430847e-01</leafValues></_>
        <_>
          <internalNodes>
            0 -1 28 6.2740929424762726e-03</internalNodes>
          <leafValues>
            3.1907325983047485e-01 -8.5980027914047241e-01</leafValues></_>
        <_>
          <internalNodes>
            0 -1 70 -5.0928583368659019e-04</internalNodes>
          <leafValues>
            -7.8837734460830688e-01 2.5239321589469910e-01</leafValues></_>
        <_>
          <internalNodes>
            0 -1 82 -8.0485985381528735e-04</internalNodes>
          <leafValues>
            4.4764414429664612e-01 -5.4394191503524780e-01</leafValues></_>
        <_>
          <internalNodes>
            0 -1 80 2.5478046154603362e-04</internalNodes>
          <leafValues>
            -6.6823756694793701e-01 3.4994235634803772e-01</leafValues></_>
        <_>
          <internalNodes>
            0 -1 33 1.6287836479023099e-04</internalNodes>
          <leafValues>
            3.1317844986915588e-01 -7.8198808431625366e-01</leafValues></_></weakClassifiers></_></stages>
  <features>
    <_>
      <rects>
        <_>
          1 4 12 15 -1.</_>
        <_>
          5 4 4 15 3.</_></rects>
      <tilted>0</tilted></_>
    <_>
      <rects>
        <_>
          1 5 12 7 -1.</_>
        <_>
          5 5 4 7 3.</_></rects>
      <tilted>0</tilted></_>
    <_>
      <rects>
        <_>
          2 9 12 10 -1.</_>
        <_>
          2 9 6 5 2.</_>
        <_>
          8 14 6 5 2.</_></rects>
      <tilted>0</tilted></_>
    <_>
      <rects>
        <_>
          2 12 2 5 -1.</_>
        <_>
          3 12 1 5 2.</_></rects>
      <tilted>0</tilted></_>
    <_>
      <rects>
        <_>
          3 3 12 6 -1.</_>
        <_>
          3 3 6 3 2.</_>
        <_>
          9 6 6 3 2.</_></rects>
      <tilted>0</tilted></_>
    <_>
      <rects>
        <_>
          3 5 18 9 -1.</_>
        <_>
          3 8 18 3 3.</_></rects>
      <tilted>0</tilted></_>
    <_>
      <rects>
        <_>
          3 6 4 10 -1.</_>
        <_>
          3 6 2 5 2.</_>
        <_>
          5 11 2 5 2.</_></rects>
      <tilted>0</tilted></_>
    <_>
      <rects>
        <_>
          3 7 4 8 -1.</_>
        <_>
          3 7 2 4 2.</_>
        <_>
          5 11 2 4 2.</_></rects>
      <tilted>0</tilted></_>
    <_>
      <rects>
        <_>
          3 10 2 2 -1.</_>
        <_>
          3 10 1 1 2.</_>
        <_>
          4 11 1 1 2.</_></rects>
      <tilted>0</tilted></_>
    <_>
      <rects>
        <_>
          3 10 14 10 -1.</_>
        <_>
          3 10 7 5 2.</_>
        <_>
          10 15 7 5 2.</_></rects>
      <tilted>0</tilted></_>
    <_>
      <rects>
        <_>
          3 12 4 6 -1.</_>
        <_>
          3 12 2 3 2.</_>
        <_>
          5 15 2 3 2.</_></rects>
      <tilted>0</tilted></_>
    <_>
      <rects>
        <_>
          3 13 4 2 -1.</_>
        <_>
          3 13 2 1 2.</_>
        <_>
          5 14 2 1 2.</_></rects>
      <tilted>0</tilted></_>
    <_>
      <rects>
        <_>
          3 15 6 5 -1.</_>
        <_>
          6 15 3 5 2.</_></rects>
      <tilted>0</tilted></_>
    <_>
      <rects>
        <_>
          3 15 12 1 -1.</_>
        <_>
          7 15 4 1 3.</_></rects>
      <tilted>0</tilted></_>
    <_>
      <rects>
        <_>
          4 7 2 2 -1.</_>
        <_>
          4 7 1 1 2.</_>
        <_>
          5 8 1 1 2.</_></rects>
      <tilted>0</tilted></_>
    <_>
      <rects>
        <_>
          4 8 6 10 -1.</_>
        <_>
          4 13 6 5 2.</_></rects>
      <tilted>0</tilted></_>
    <_>
      <rects>
        <_>
          4 16 2 2 -1.</_>
        <_>
          4 16 1 1 2.</_>
        <_>
          5 17 1 1 2.</_></rects>
      <tilted>0</tilted></_>
    <_>
      <rects>
        <_>
          4 17 4 2 -1.</_>
        <_>
          4 17 2 1 2.</_>
        <_>
          6 18 2 1 2.</_></rects>
      <tilted>0</tilted></_>
    <_>
      <rects>
        <_>
          5 5 6 4 -1.</_>
        <_>
          5 5 3 2 2.</_>
        <_>
          8 7 3 2 2.</_></rects>
      <tilted>0</tilted></_>
    <_>
      <rects>
        <_>
          5 6 9 1 -1.</_>
        <_>
          8 6 3 1 3.</_></rects>
      <tilted>0</tilted></_>
    <_>
      <rects>
        <_>
          5 12 3 2 -1.</_>
        <_>
          5 13 3 1 2.</_></rects>
      <tilted>0</tilted></_>
    <_>
      <rects>
        <_>
          5 16 4 4 -1.</_>
        <_>
          5 16 2 2 2.</_>
        <_>
          7 18 2 2 2.</_></rects>
      <tilted>0</tilted></_>
    <_>
      <rects>
        <_>
          5 17 6 4 -1.</_>
        <_>
          5 17 3 2 2.</_>
        <_>
          8 19 3 2 2.</_></rects>
      <tilted>0</tilted></_>
    <_>
      <rects>
        <_>
          5 17 10 4 -1.</_>
        <_>
          5 17 5 2 2.</_>
        <_>
          10 19 5 2 2.</_></rects>
      <tilted>0</tilted></_>
    <_>
      <rects>
        <_>
          6 1 1 15 -1.</_>
        <_>
          6 6 1 5 3.</_></rects>
      <tilted>0</tilted></_>
    <_>
      <rects>
        <_>
          6 3 11 6 -1.</_>
        <_>
          6 5 11 2 3.</_></rects>
      <tilted>0</tilted></_>
    <_>
      <rects>
        <_>
          6 6 4 3 -1.</_>
        <_>
          6 7 4 1 3.</_></rects>
      <tilted>0</tilted></_>
    <_>
      <rects>
        <_>
          6 9 12 1 -1.</_>
        <_>
          12 9 6 1 2.</_></rects>
      <tilted>0</tilted></_>
    <_>
      <rects>
        <_>
          6 10 16 5 -1.</_>
        <_>
          14 10 8 5 2.</_></rects>
      <tilted>0</tilted></_>
    <_>
      <rects>
        <_>
          6 15 8 2 -1.</_>
        <_>
          6 15 4 1 2.</_>
        <_>
          10 16 4 1 2.</_></rects>
      <tilted>0</tilted></_>
    <_>
      <rects>
        <_>
          6 16 2 4 -1.</_>
        <_>
          7 16 1 4 2.</_></rects>
      <tilted>0</tilted></_>
    <_>
      <rects>
        <_>
          6 17 12 2 -1.</_>
        <_>
          6 17 6 1 2.</_>
        <_>
          12 18 6 1 2.</_></rects>
      <tilted>0</tilted></_>
    <_>
      <rects>
        <_>
          7 1 11 9 -1.</_>
        <_>
          7 4 11 3 3.</_></rects>
      <tilted>0</tilted></_>
    <_>
      <rects>
        <_>
          7 15 4 2 -1.</_>
        <_>
          7 15 2 1 2.</_>
        <_>
          9 16 2 1 2.</_></rects>
      <tilted>0</tilted></_>
    <_>
      <rects>
        <_>
          7 17 10 6 -1.</_>
        <_>
          7 19 10 2 3.</_></rects>
      <tilted>0</tilted></_>
    <_>
      <rects>
        <_>
          8 2 12 18 -1.</_>
        <_>
          8 2 6 9 2.</_>
        <_>
          14 11 6 9 2.</_></rects>
      <tilted>0</tilted></_>
    <_>
      <rects>
        <_>
          8 4 6 16 -1.</_>
        <_>
          8 4 3 8 2.</_>
        <_>
          11 12 3 8 2.</_></rects>
      <tilted>0</tilted></_>
    <_>
      <rects>
        <_>
          8 9 1 15 -1.</_>
        <_>
          8 14 1 5 3.</_></rects>
      <tilted>0</tilted></_>
    <_>
      <rects>
        <_>
          8 15 8 3 -1.</_>
        <_>
          12 15 4 3 2.</_></rects>
      <tilted>0</tilted></_>
    <_>
      <rects>
        <_>
          8 16 12 4 -1.</_>
        <_>
          8 16 6 2 2.</_>
        <_>
          14 18 6 2 2.</_></rects>
      <tilted>0</tilted></_>
    <_>
      <rects>
        <_>
          9 6 8 1 -1.</_>
        <_>
          13 6 4 1 2.</_></rects>
      <tilted>0</tilted></_>
    <_>
      <rects>
        <_>
          9 9 8 1 -1.</_>
        <_>
          13 9 4 1 2.</_></rects>
      <tilted>0</tilted></_>
    <_>
      <rects>
        <_>
          9 16 2 6 -1.</_>
        <_>
          9 18 2 2 3.</_></rects>
      <tilted>0</tilted></_>
    <_>
      <rects>
        <_>
          10 6 6 4 -1.</_>
        <_>
          10 6 3 2 2.</_>
        <_>
          13 8 3 2 2.</_></rects>
      <tilted>0</tilted></_>
    <_>
      <rects>
        <_>
          10 9 2 3 -1.</_>
        <_>
          10 10 2 1 3.</_></rects>
      <tilted>0</tilted></_>
    <_>
      <rects>
        <_>
          10 10 11 2 -1.</_>
        <_>
          10 11 11 1 2.</_></rects>
      <tilted>0</tilted></_>
    <_>
      <rects>
        <_>
          10 17 5 2 -1.</_>
        <_>
          10 18 5 1 2.</_></rects>
      <tilted>0</tilted></_>
    <_>
      <rects>
        <_>
          10 18 12 2 -1.</_>
        <_>
          14 18 4 2 3.</_></rects>
      <tilted>0</tilted></_>
    <_>
      <rects>
        <_>
          11 4 9 16 -1.</_>
        <_>
          14 4 3 16 3.</_></rects>
      <tilted>0</tilted></_>
    <_>
      <rects>
        <_>
          11 7 6 3 -1.</_>
        <_>
          13 7 2 3 3.</_></rects>
      <tilted>0</tilted></_>
    <_>
      <rects>
        <_>
          11 8 3 2 -1.</_>
        <_>
          11 9 3 1 2.</_></rects>
      <tilted>0</tilted></_>
    <_>
      <rects>
        <_>
          11 11 3 2 -1.</_>
        <_>
          12 11 1 2 3.</_></rects>
      <tilted>0</tilted></_>
    <_>
      <rects>
        <_>
          11 15 3 3 -1.</_>
        <_>
          11 16 3 1 3.</_></rects>
      <tilted>0</tilted></_>
    <_>
      <rects>
        <_>
          11 16 3 2 -1.</_>
        <_>
          11 17 3 1 2.</_></rects>
      <tilted>0</tilted></_>
    <_>
      <rects>
        <_>
          11 17 6 2 -1.</_>
        <_>
          11 17 3 1 2.</_>
        <_>
          14 18 3 1 2.</_></rects>
      <tilted>0</tilted></_>
    <_>
      <rects>
        <_>
          11 19 8 2 -1.</_>
        <_>
          11 19 4 1 2.</_>
        <_>
          15 20 4 1 2.</_></rects>
      <tilted>0</tilted></_>
    <_>
      <rects>
        <_>
          12 3 1 12 -1.</_>
        <_>
          12 9 1 6 2.</_></rects>
      <tilted>0</tilted></_>
    <_>
      <rects>
        <_>
          12 4 12 15 -1.</_>
        <_>
          16 4 4 15 3.</_></rects>
      <tilted>0</tilted></_>
    <_>
      <rects>
        <_>
          12 17 4 2 -1.</_>
        <_>
          12 17 2 1 2.</_>
        <_>
          14 18 2 1 2.</_></rects>
      <tilted>0</tilted></_>
    <_>
      <rects>
        <_>
          13 10 2 2 -1.</_>
        <_>
          13 10 1 1 2.</_>
        <_>
          14 11 1 1 2.</_></rects>
      <tilted>0</tilted></_>
    <_>
      <rects>
        <_>
          13 15 9 3 -1.</_>
        <_>
          16 15 3 3 3.</_></rects>
      <tilted>0</tilted></_>
    <_>
      <rects>
        <_>
          13 16 7 2 -1.</_>
        <_>
          13 17 7 1 2.</_></rects>
      <tilted>0</tilted></_>
    <_>
      <rects>
        <_>
          14 5 6 2 -1.</_>
        <_>
          14 6 6 1 2.</_></rects>
      <tilted>0</tilted></_>
    <_>
      <rects>
        <_>
          14 8 2 12 -1.</_>
        <_>
          14 14 2 6 2.</_></rects>
      <tilted>0</tilted></_>
    <_>
      <rects>
        <_>
          14 9 3 4 -1.</_>
        <_>
          15 9 1 4 3.</_></rects>
      <tilted>0</tilted></_>
    <_>
      <rects>
        <_>
          14 16 2 3 -1.</_>
        <_>
          14 17 2 1 3.</_></rects>
      <tilted>0</tilted></_>
    <_>
      <rects>
        <_>
          14 16 6 3 -1.</_>
        <_>
          16 16 2 3 3.</_></rects>
      <tilted>0</tilted></_>
    <_>
      <rects>
        <_>
          14 18 5 2 -1.</_>
        <_>
          14 19 5 1 2.</_></rects>
      <tilted>0</tilted></_>
    <_>
      <rects>
        <_>
          15 2 1 9 -1.</_>
        <_>
          15 5 1 3 3.</_></rects>
      <tilted>0</tilted></_>
    <_>
      <rects>
        <_>
          15 4 6 10 -1.</_>
        <_>
          15 4 3 5 2.</_>
        <_>
          18 9 3 5 2.</_></rects>
      <tilted>0</tilted></_>
    <_>
      <rects>
        <_>
          15 12 4 1 -1.</_>
        <_>
          17 12 2 1 2.</_></rects>
      <tilted>0</tilted></_>
    <_>
      <rects>
        <_>
          15 13 6 2 -1.</_>
        <_>
          15 13 3 1 2.</_>
        <_>
          18 14 3 1 2.</_></rects>
      <tilted>0</tilted></_>
    <_>
      <rects>
        <_>
          15 16 2 1 -1.</_>
        <_>
          16 16 1 1 2.</_></rects>
      <tilted>0</tilted></_>
    <_>
      <rects>
        <_>
          15 16 3 1 -1.</_>
        <_>
          16 16 1 1 3.</_></rects>
      <tilted>0</tilted></_>
    <_>
      <rects>
        <_>
          16 6 6 8 -1.</_>
        <_>
          16 6 3 4 2.</_>
        <_>
          19 10 3 4 2.</_></rects>
      <tilted>0</tilted></_>
    <_>
      <rects>
        <_>
          16 17 4 2 -1.</_>
        <_>
          16 17 2 1 2.</_>
        <_>
          18 18 2 1 2.</_></rects>
      <tilted>0</tilted></_>
    <_>
      <rects>
        <_>
          17 5 2 3 -1.</_>
        <_>
          18 5 1 3 2.</_></rects>
      <tilted>0</tilted></_>
    <_>
      <rects>
        <_>
          17 7 4 8 -1.</_>
        <_>
          17 7 2 4 2.</_>
        <_>
          19 11 2 4 2.</_></rects>
      <tilted>0</tilted></_>
    <_>
      <rects>
        <_>
          17 12 2 9 -1.</_>
        <_>
          17 15 2 3 3.</_></rects>
      <tilted>0</tilted></_>
    <_>
      <rects>
        <_>
          18 7 4 4 -1.</_>
        <_>
          20 7 2 4 2.</_></rects>
      <tilted>0</tilted></_>
    <_>
      <rects>
        <_>
          18 15 2 4 -1.</_>
        <_>
          18 15 1 2 2.</_>
        <_>
          19 17 1 2 2.</_></rects>
      <tilted>0</tilted></_>
    <_>
      <rects>
        <_>
          18 16 2 2 -1.</_>
        <_>
          18 16 1 1 2.</_>
        <_>
          19 17 1 1 2.</_></rects>
      <tilted>0</tilted></_>
    <_>
      <rects>
        <_>
          19 6 1 6 -1.</_>
        <_>
          19 8 1 2 3.</_></rects>
      <tilted>0</tilted></_>
    <_>
      <rects>
        <_>
          19 12 2 4 -1.</_>
        <_>
          19 12 1 2 2.</_>
        <_>
          20 14 1 2 2.</_></rects>
      <tilted>0</tilted></_>
    <_>
      <rects>
        <_>
          19 12 2 6 -1.</_>
        <_>
          19 14 2 2 3.</_></rects>
      <tilted>0</tilted></_>
    <_>
      <rects>
        <_>
          19 13 2 4 -1.</_>
        <_>
          19 13 1 2 2.</_>
        <_>
          20 15 1 2 2.</_></rects>
      <tilted>0</tilted></_></features></cascade>
</opencv_storage>
