<?xml version="1.0"?>
<opencv_storage>
<cascade>
  <stageType>BOOST</stageType>
  <featureType>HAAR</featureType>
  <height>24</height>
  <width>24</width>
  <stageParams>
    <boostType>GAB</boostType>
    <minHitRate>9.9500000476837158e-01</minHitRate>
    <maxFalseAlarm>5.0000000000000000e-01</maxFalseAlarm>
    <weightTrimRate>9.4999998807907104e-01</weightTrimRate>
    <maxDepth>1</maxDepth>
    <maxWeakCount>100</maxWeakCount></stageParams>
  <featureParams>
    <maxCatCount>0</maxCatCount>
    <featSize>1</featSize>
    <mode>BASIC</mode></featureParams>
  <stageNum>14</stageNum>
  <stages>
    <!-- stage 0 -->
    <_>
      <maxWeakCount>2</maxWeakCount>
      <stageThreshold>-1.0555388778448105e-01</stageThreshold>
      <weakClassifiers>
        <_>
          <internalNodes>
            0 -1 33 1.8807955086231232e-02</internalNodes>
          <leafValues>
            -9.2118227481842041e-01 8.9361703395843506e-01</leafValues></_>
        <_>
          <internalNodes>
            0 -1 18 -7.8463748097419739e-02</internalNodes>
          <leafValues>
            8.1562840938568115e-01 -9.6189451217651367e-01</leafValues></_></weakClassifiers></_>
    <!-- stage 1 -->
    <_>
      <maxWeakCount>2</maxWeakCount>
      <stageThreshold>-9.7947098314762115e-02</stageThreshold>
      <weakClassifiers>
        <_>
          <internalNodes>
            0 -1 26 -7.9011563211679459e-03</internalNodes>
          <leafValues>
            1. -8.4331798553466797e-01</leafValues></_>
        <_>
          <internalNodes>
            0 -1 5 -8.1365238875150681e-03</internalNodes>
          <leafValues>
            7.4537086486816406e-01 -9.7143173217773438e-01</leafValues></_></weakClassifiers></_>
    <!-- stage 2 -->
    <_>
      <maxWeakCount>3</maxWeakCount>
      <stageThreshold>-1.0357340574264526e+00</stageThreshold>
      <weakClassifiers>
        <_>
          <internalNodes>
            0 -1 0 -2.8088431805372238e-02</internalNodes>
          <leafValues>
            8.8372093439102173e-01 -8.4834122657775879e-01</leafValues></_>
        <_>
          <internalNodes>
            0 -1 35 -2.5306032970547676e-02</internalNodes>
          <leafValues>
            8.7453263998031616e-01 -8.5982561111450195e-01</leafValues></_>
        <_>
          <internalNodes>
            0 -1 23 -2.8946977108716965e-02</internalNodes>
          <leafValues>
            6.7243278026580811e-01 -9.6663427352905273e-01</leafValues></_></weakClassifiers></_>
    <!-- stage 3 -->
    <_>
      <maxWeakCount>3</maxWeakCount>
      <stageThreshold>-1.0453349351882935e+00</stageThreshold>
      <weakClassifiers>
        <_>
          <internalNodes>
            0 -1 22 5.3346846252679825e-03</internalNodes>
          <leafValues>
            -8.4466022253036499e-01 7.8021979331970215e-01</leafValues></_>
        <_>
          <internalNodes>
            0 -1 1 -5.2233971655368805e-02</internalNodes>
          <leafValues>
            7.2448128461837769e-01 -8.6123651266098022e-01</leafValues></_>
        <_>
          <internalNodes>
            0 -1 13 -7.1173280477523804e-02</internalNodes>
          <leafValues>
            6.6222482919692993e-01 -9.2515605688095093e-01</leafValues></_></weakClassifiers></_>
    <!-- stage 4 -->
    <_>
      <maxWeakCount>3</maxWeakCount>
      <stageThreshold>-9.6619409322738647e-01</stageThreshold>
      <weakClassifiers>
        <_>
          <internalNodes>
            0 -1 31 -9.1859828680753708e-03</internalNodes>
          <leafValues>
            8.7500000000000000e-01 -7.9723501205444336e-01</leafValues></_>
        <_>
          <internalNodes>
            0 -1 11 -2.7944760397076607e-02</internalNodes>
          <leafValues>
            8.4714931249618530e-01 -8.1983304023742676e-01</leafValues></_>
        <_>
          <internalNodes>
            0 -1 20 -1.7199223293573596e-05</internalNodes>
          <leafValues>
            6.5087395906448364e-01 -9.1088306903839111e-01</leafValues></_></weakClassifiers></_>
    <!-- stage 5 -->
    <_>
      <maxWeakCount>3</maxWeakCount>
      <stageThreshold>-9.2735278606414795e-01</stageThreshold>
      <weakClassifiers>
        <_>
          <internalNodes>
            0 -1 21 4.3132039718329906e-03</internalNodes>
          <leafValues>
            -8.4158414602279663e-01 7.0526313781738281e-01</leafValues></_>
        <_>
          <internalNodes>
            0 -1 17 -4.0628805756568909e-02</internalNodes>
          <leafValues>
            8.2993489503860474e-01 -7.1874952316284180e-01</leafValues></_>
        <_>
          <internalNodes>
            0 -1 30 -1.4353638107422739e-05</internalNodes>
          <leafValues>
            6.3298088312149048e-01 -9.0379059314727783e-01</leafValues></_></weakClassifiers></_>
    <!-- stage 6 -->
    <_>
      <maxWeakCount>3</maxWeakCount>
      <stageThreshold>-1.0611615180969238e+00</stageThreshold>
      <weakClassifiers>
        <_>
          <internalNodes>
            0 -1 19 -3.7358067929744720e-02</internalNodes>
          <leafValues>
            8.5915493965148926e-01 -7.2566372156143188e-01</leafValues></_>
        <_>
          <internalNodes>
            0 -1 8 -4.1957522626034915e-05</internalNodes>
          <leafValues>
            6.0559272766113281e-01 -9.2394465208053589e-01</leafValues></_>
        <_>
          <internalNodes>
            0 -1 24 -4.8856817185878754e-02</internalNodes>
          <leafValues>
            5.8844679594039917e-01 -9.0734165906906128e-01</leafValues></_></weakClassifiers></_>
    <!-- stage 7 -->
    <_>
      <maxWeakCount>3</maxWeakCount>
      <stageThreshold>-7.9360061883926392e-01</stageThreshold>
      <weakClassifiers>
        <_>
          <internalNodes>
            0 -1 25 -1.4893764629960060e-02</internalNodes>
          <leafValues>
            7.6470589637756348e-01 -7.9245281219482422e-01</leafValues></_>
        <_>
          <internalNodes>
            0 -1 37 -5.5061143939383328e-05</internalNodes>
          <leafValues>
            6.4483654499053955e-01 -8.3829385042190552e-01</leafValues></_>
        <_>
          <internalNodes>
            0 -1 4 -1.7372306436300278e-02</internalNodes>
          <leafValues>
            9.5569223165512085e-01 -6.4598429203033447e-01</leafValues></_></weakClassifiers></_>
    <!-- stage 8 -->
    <_>
      <maxWeakCount>2</maxWeakCount>
      <stageThreshold>-1.1693068593740463e-01</stageThreshold>
      <weakClassifiers>
        <_>
          <internalNodes>
            0 -1 12 1.7405018210411072e-01</internalNodes>
          <leafValues>
            -7.9710143804550171e-01 6.8888890743255615e-01</leafValues></_>
        <_>
          <internalNodes>
            0 -1 9 -1.8030691146850586e-01</internalNodes>
          <leafValues>
            6.8959146738052368e-01 -8.0581957101821899e-01</leafValues></_></weakClassifiers></_>
    <!-- stage 9 -->
    <_>
      <maxWeakCount>3</maxWeakCount>
      <stageThreshold>-8.1400424242019653e-01</stageThreshold>
      <weakClassifiers>
        <_>
          <internalNodes>
            0 -1 27 6.1011984944343567e-03</internalNodes>
          <leafValues>
            -8.3333331346511841e-01 9.5061731338500977e-01</leafValues></_>
        <_>
          <internalNodes>
            0 -1 36 -1.6265783458948135e-02</internalNodes>
          <leafValues>
            8.1380027532577515e-01 -8.1860476732254028e-01</leafValues></_>
        <_>
          <internalNodes>
            0 -1 2 -2.8109659906476736e-03</internalNodes>
          <leafValues>
            8.7892031669616699e-01 -7.9447114467620850e-01</leafValues></_></weakClassifiers></_>
    <!-- stage 10 -->
    <_>
      <maxWeakCount>3</maxWeakCount>
      <stageThreshold>-8.2127684354782104e-01</stageThreshold>
      <weakClassifiers>
        <_>
          <internalNodes>
            0 -1 15 -3.4321457147598267e-02</internalNodes>
          <leafValues>
            6.9892472028732300e-01 -8.2352942228317261e-01</leafValues></_>
        <_>
          <internalNodes>
            0 -1 38 1.1046849191188812e-02</internalNodes>
          <leafValues>
            -7.5690090656280518e-01 7.3639094829559326e-01</leafValues></_>
        <_>
          <internalNodes>
            0 -1 7 -2.2586092352867126e-02</internalNodes>
          <leafValues>
            7.5915348529815674e-01 -6.8262642621994019e-01</leafValues></_></weakClassifiers></_>
    <!-- stage 11 -->
    <_>
      <maxWeakCount>3</maxWeakCount>
      <stageThreshold>-6.6161930561065674e-01</stageThreshold>
      <weakClassifiers>
        <_>
          <internalNodes>
            0 -1 32 9.4566717743873596e-03</internalNodes>
          <leafValues>
            -6.8695652484893799e-01 8.2089549303054810e-01</leafValues></_>
        <_>
          <internalNodes>
            0 -1 10 -3.8063479587435722e-03</internalNodes>
          <leafValues>
            6.6276252269744873e-01 -7.0246905088424683e-01</leafValues></_>
        <_>
          <internalNodes>
            0 -1 3 -1.2591632083058357e-02</internalNodes>
          <leafValues>
            7.4962300062179565e-01 -6.3742530345916748e-01</leafValues></_></weakClassifiers></_>
    <!-- stage 12 -->
    <_>
      <maxWeakCount>2</maxWeakCount>
      <stageThreshold>-4.6603691577911377e-01</stageThreshold>
      <weakClassifiers>
        <_>
          <internalNodes>
            0 -1 28 1.0137337259948254e-02</internalNodes>
          <leafValues>
            -8.8505744934082031e-01 4.1463413834571838e-01</leafValues></_>
        <_>
          <internalNodes>
            0 -1 14 -9.4955284148454666e-03</internalNodes>
          <leafValues>
            4.5356002449989319e-01 -8.8067108392715454e-01</leafValues></_></weakClassifiers></_>
    <!-- stage 13 -->
    <_>
      <maxWeakCount>4</maxWeakCount>
      <stageThreshold>-7.3603332042694092e-01</stageThreshold>
      <weakClassifiers>
        <_>
          <internalNodes>
            0 -1 29 1.2953148223459721e-02</internalNodes>
          <leafValues>
            -6.5957444906234741e-01 8.3870965242385864e-01</leafValues></_>
        <_>
          <internalNodes>
            0 -1 6 -8.2400918006896973e-02</internalNodes>
          <leafValues>
            5.2217090129852295e-01 -8.5457974672317505e-01</leafValues></_>
        <_>
          <internalNodes>
            0 -1 34 1.3182029761082958e-05</internalNodes>
          <leafValues>
            -9.0509134531021118e-01 4.0851399302482605e-01</leafValues></_>
        <_>
          <internalNodes>
            0 -1 16 2.9224960599094629e-03</internalNodes>
          <leafValues>
            -9.5716190338134766e-01 3.6960694193840027e-01</leafValues></_></weakClassifiers></_></stages>
  <features>
    <_>
      <rects>
        <_>
          0 8 6 8 -1.</_>
        <_>
          2 8 2 8 3.</_></rects>
      <tilted>0</tilted></_>
    <_>
      <rects>
        <_>
          1 3 21 3 -1.</_>
        <_>
          8 3 7 3 3.</_></rects>
      <tilted>0</tilted></_>
    <_>
      <rects>
        <_>
          1 7 2 3 -1.</_>
        <_>
          2 7 1 3 2.</_></rects>
      <tilted>0</tilted></_>
    <_>
      <rects>
        <_>
          1 8 2 8 -1.</_>
        <_>
          2 8 1 8 2.</_></rects>
      <tilted>0</tilted></_>
    <_>
      <rects>
        <_>
          1 8 3 9 -1.</_>
        <_>
          2 8 1 9 3.</_></rects>
      <tilted>0</tilted></_>
    <_>
      <rects>
        <_>
          1 17 10 2 -1.</_>
        <_>
          6 17 5 2 2.</_></rects>
      <tilted>0</tilted></_>
    <_>
      <rects>
        <_>
          2 2 15 19 -1.</_>
        <_>
          7 2 5 19 3.</_></rects>
      <tilted>0</tilted></_>
    <_>
      <rects>
        <_>
          2 4 6 4 -1.</_>
        <_>
          5 4 3 4 2.</_></rects>
      <tilted>0</tilted></_>
    <_>
      <rects>
        <_>
          2 11 2 2 -1.</_>
        <_>
          2 11 1 1 2.</_>
        <_>
          3 12 1 1 2.</_></rects>
      <tilted>0</tilted></_>
    <_>
      <rects>
        <_>
          3 3 21 19 -1.</_>
        <_>
          10 3 7 19 3.</_></rects>
      <tilted>0</tilted></_>
    <_>
      <rects>
        <_>
          3 15 4 2 -1.</_>
        <_>
          3 16 4 1 2.</_></rects>
      <tilted>0</tilted></_>
    <_>
      <rects>
        <_>
          4 2 3 9 -1.</_>
        <_>
          4 5 3 3 3.</_></rects>
      <tilted>0</tilted></_>
    <_>
      <rects>
        <_>
          4 3 16 15 -1.</_>
        <_>
          4 8 16 5 3.</_></rects>
      <tilted>0</tilted></_>
    <_>
      <rects>
        <_>
          4 13 20 9 -1.</_>
        <_>
          4 16 20 3 3.</_></rects>
      <tilted>0</tilted></_>
    <_>
      <rects>
        <_>
          5 1 2 15 -1.</_>
        <_>
          5 6 2 5 3.</_></rects>
      <tilted>0</tilted></_>
    <_>
      <rects>
        <_>
          5 4 6 17 -1.</_>
        <_>
          7 4 2 17 3.</_></rects>
      <tilted>0</tilted></_>
    <_>
      <rects>
        <_>
          5 19 14 2 -1.</_>
        <_>
          5 20 14 1 2.</_></rects>
      <tilted>0</tilted></_>
    <_>
      <rects>
        <_>
          6 0 11 4 -1.</_>
        <_>
          6 2 11 2 2.</_></rects>
      <tilted>0</tilted></_>
    <_>
      <rects>
        <_>
          6 1 13 9 -1.</_>
        <_>
          6 4 13 3 3.</_></rects>
      <tilted>0</tilted></_>
    <_>
      <rects>
        <_>
          8 0 7 4 -1.</_>
        <_>
          8 2 7 2 2.</_></rects>
      <tilted>0</tilted></_>
    <_>
      <rects>
        <_>
          8 9 1 2 -1.</_>
        <_>
          8 10 1 1 2.</_></rects>
      <tilted>0</tilted></_>
    <_>
      <rects>
        <_>
          8 10 3 2 -1.</_>
        <_>
          9 10 1 2 3.</_></rects>
      <tilted>0</tilted></_>
    <_>
      <rects>
        <_>
          8 10 2 4 -1.</_>
        <_>
          9 10 1 4 2.</_></rects>
      <tilted>0</tilted></_>
    <_>
      <rects>
        <_>
          10 3 12 14 -1.</_>
        <_>
          10 3 6 7 2.</_>
        <_>
          16 10 6 7 2.</_></rects>
      <tilted>0</tilted></_>
    <_>
      <rects>
        <_>
          10 8 9 12 -1.</_>
        <_>
          10 14 9 6 2.</_></rects>
      <tilted>0</tilted></_>
    <_>
      <rects>
        <_>
          10 9 3 6 -1.</_>
        <_>
          11 9 1 6 3.</_></rects>
      <tilted>0</tilted></_>
    <_>
      <rects>
        <_>
          10 10 3 4 -1.</_>
        <_>
          11 10 1 4 3.</_></rects>
      <tilted>0</tilted></_>
    <_>
      <rects>
        <_>
          11 9 2 5 -1.</_>
        <_>
          12 9 1 5 2.</_></rects>
      <tilted>0</tilted></_>
    <_>
      <rects>
        <_>
          13 10 2 9 -1.</_>
        <_>
          13 13 2 3 3.</_></rects>
      <tilted>0</tilted></_>
    <_>
      <rects>
        <_>
          14 9 3 5 -1.</_>
        <_>
          15 9 1 5 3.</_></rects>
      <tilted>0</tilted></_>
    <_>
      <rects>
        <_>
          15 2 2 4 -1.</_>
        <_>
          15 2 1 2 2.</_>
        <_>
          16 4 1 2 2.</_></rects>
      <tilted>0</tilted></_>
    <_>
      <rects>
        <_>
          15 10 3 6 -1.</_>
        <_>
          16 10 1 6 3.</_></rects>
      <tilted>0</tilted></_>
    <_>
      <rects>
        <_>
          16 8 3 4 -1.</_>
        <_>
          17 8 1 4 3.</_></rects>
      <tilted>0</tilted></_>
    <_>
      <rects>
        <_>
          16 12 6 8 -1.</_>
        <_>
          16 12 3 4 2.</_>
        <_>
          19 16 3 4 2.</_></rects>
      <tilted>0</tilted></_>
    <_>
      <rects>
        <_>
          16 17 2 4 -1.</_>
        <_>
          16 17 1 2 2.</_>
        <_>
          17 19 1 2 2.</_></rects>
      <tilted>0</tilted></_>
    <_>
      <rects>
        <_>
          18 9 6 6 -1.</_>
        <_>
          20 9 2 6 3.</_></rects>
      <tilted>0</tilted></_>
    <_>
      <rects>
        <_>
          18 11 6 4 -1.</_>
        <_>
          20 11 2 4 3.</_></rects>
      <tilted>0</tilted></_>
    <_>
      <rects>
        <_>
          20 7 2 2 -1.</_>
        <_>
          20 7 1 1 2.</_>
        <_>
          21 8 1 1 2.</_></rects>
      <tilted>0</tilted></_>
    <_>
      <rects>
        <_>
          21 6 2 11 -1.</_>
        <_>
          22 6 1 11 2.</_></rects>
      <tilted>0</tilted></_></features></cascade>
</opencv_storage>
